{
  "input_size": 2,
  "layers": [
    {
      "name": "dense_6",
      "activation": "tanh",
      "neurons": [
        {
          "weights": [
            0.35869014263153076,
            0.22596491873264313
          ],
          "bias": -0.31450000405311584
        },
        {
          "weights": [
            0.446016401052475,
            0.6752489805221558
          ],
          "bias": 1.1396291255950928
        },
        {
          "weights": [
            -0.39166006445884705,
            0.5017430782318115
          ],
          "bias": 0.6250402927398682
        },
        {
          "weights": [
            -0.6586293578147888,
            -0.7801040410995483
          ],
          "bias": -0.2802908420562744
        },
        {
          "weights": [
            0.6626504063606262,
            -0.6982619166374207
          ],
          "bias": -0.6726037263870239
        },
        {
          "weights": [
            -0.3631940186023712,
            0.4421099126338959
          ],
          "bias": -0.7719354033470154
        }
      ]
    },
    {
      "name": "dense_7",
      "activation": "tanh",
      "neurons": [
        {
          "weights": [
            -1.3123760223388672,
            0.5880975723266602,
            -0.06064596027135849,
            -0.2667653560638428,
            0.08285096287727356,
            0.005400655325502157
          ],
          "bias": -0.11641678214073181
        },
        {
          "weights": [
            1.876030445098877,
            -1.085503339767456,
            0.5662214756011963,
            0.5092416405677795,
            -0.06379334628582001,
            -0.17462274432182312
          ],
          "bias": 0.0727723017334938
        },
        {
          "weights": [
            -0.7472252249717712,
            0.4553794860839844,
            -0.3131447732448578,
            -0.1250542253255844,
            0.597385585308075,
            1.1844311952590942
          ],
          "bias": -0.17584271728992462
        },
        {
          "weights": [
            -1.2957234382629395,
            -0.21141594648361206,
            1.644777536392212,
            -0.5821563601493835,
            -1.2154463529586792,
            -0.9759351015090942
          ],
          "bias": 0.7358185052871704
        }
      ]
    },
    {
      "name": "dense_8",
      "activation": "linear",
      "neurons": [
        {
          "weights": [
            -0.07218094170093536,
            2.235576629638672,
            -1.8124421834945679,
            0.6740735173225403
          ],
          "bias": -0.11155340820550919
        }
      ]
    }
  ]
}